digraph Tree {
node [shape=box, fontname="helvetica"] ;
edge [fontname="helvetica"] ;
0 [label="x[6] <= -0.678\ngini = 0.895\nsamples = 4177\nvalue = [1, 1, 15, 57, 115, 259, 391, 568, 689, 634, 487\n267, 203, 126, 103, 67, 58, 42, 32, 26, 14, 6, 9\n2, 1, 1, 2, 1]"] ;
1 [label="x[1] <= -1.868\ngini = 0.839\nsamples = 1185\nvalue = [1, 1, 15, 57, 115, 241, 306, 202, 109, 63, 32\n20, 12, 3, 3, 4, 0, 1, 0, 0, 0, 0, 0, 0, 0\n0, 0, 0]"] ;
0 -> 1 [labeldistance=2.5, labelangle=45, headlabel="True"] ;
2 [label="x[6] <= -1.56\ngini = 0.757\nsamples = 219\nvalue = [1, 1, 15, 53, 78, 47, 17, 6, 1, 0, 0, 0, 0\n0, 0, 0, 0, 0, 0, 0, 0, 0, 0, 0, 0, 0, 0\n0]"] ;
1 -> 2 ;
3 [label="x[3] <= -1.643\ngini = 0.69\nsamples = 96\nvalue = [1, 1, 15, 43, 27, 7, 2, 0, 0, 0, 0, 0, 0, 0\n0, 0, 0, 0, 0, 0, 0, 0, 0, 0, 0, 0, 0, 0]"] ;
2 -> 3 ;
4 [label="gini = 0.642\nsamples = 18\nvalue = [1, 1, 8, 7, 1, 0, 0, 0, 0, 0, 0, 0, 0, 0\n0, 0, 0, 0, 0, 0, 0, 0, 0, 0, 0, 0, 0, 0]"] ;
3 -> 4 ;
5 [label="gini = 0.659\nsamples = 78\nvalue = [0, 0, 7, 36, 26, 7, 2, 0, 0, 0, 0, 0, 0, 0\n0, 0, 0, 0, 0, 0, 0, 0, 0, 0, 0, 0, 0, 0]"] ;
3 -> 5 ;
6 [label="x[0] <= -2.303\ngini = 0.698\nsamples = 123\nvalue = [0, 0, 0, 10, 51, 40, 15, 6, 1, 0, 0, 0, 0, 0\n0, 0, 0, 0, 0, 0, 0, 0, 0, 0, 0, 0, 0, 0]"] ;
2 -> 6 ;
7 [label="gini = 0.611\nsamples = 6\nvalue = [0, 0, 0, 3, 1, 2, 0, 0, 0, 0, 0, 0, 0, 0\n0, 0, 0, 0, 0, 0, 0, 0, 0, 0, 0, 0, 0, 0]"] ;
6 -> 7 ;
8 [label="gini = 0.689\nsamples = 117\nvalue = [0, 0, 0, 7, 50, 38, 15, 6, 1, 0, 0, 0, 0, 0\n0, 0, 0, 0, 0, 0, 0, 0, 0, 0, 0, 0, 0, 0]"] ;
6 -> 8 ;
9 [label="x[6] <= -1.035\ngini = 0.809\nsamples = 966\nvalue = [0, 0, 0, 4, 37, 194, 289, 196, 108, 63, 32, 20\n12, 3, 3, 4, 0, 1, 0, 0, 0, 0, 0, 0, 0, 0\n0, 0]"] ;
1 -> 9 ;
10 [label="x[7] <= 0.5\ngini = 0.78\nsamples = 489\nvalue = [0, 0, 0, 4, 34, 147, 151, 67, 39, 28, 10, 5, 3\n1, 0, 0, 0, 0, 0, 0, 0, 0, 0, 0, 0, 0, 0\n0]"] ;
9 -> 10 ;
11 [label="gini = 0.745\nsamples = 406\nvalue = [0, 0, 0, 3, 34, 136, 137, 55, 17, 16, 3, 2, 2\n1, 0, 0, 0, 0, 0, 0, 0, 0, 0, 0, 0, 0, 0\n0]"] ;
10 -> 11 ;
12 [label="gini = 0.833\nsamples = 83\nvalue = [0, 0, 0, 1, 0, 11, 14, 12, 22, 12, 7, 3, 1\n0, 0, 0, 0, 0, 0, 0, 0, 0, 0, 0, 0, 0, 0\n0]"] ;
10 -> 12 ;
13 [label="x[4] <= -0.55\ngini = 0.804\nsamples = 477\nvalue = [0, 0, 0, 0, 3, 47, 138, 129, 69, 35, 22, 15, 9\n2, 3, 4, 0, 1, 0, 0, 0, 0, 0, 0, 0, 0, 0\n0]"] ;
9 -> 13 ;
14 [label="gini = 0.816\nsamples = 407\nvalue = [0, 0, 0, 0, 3, 36, 117, 96, 66, 33, 22, 15, 9\n2, 3, 4, 0, 1, 0, 0, 0, 0, 0, 0, 0, 0, 0\n0]"] ;
13 -> 14 ;
15 [label="gini = 0.66\nsamples = 70\nvalue = [0, 0, 0, 0, 0, 11, 21, 33, 3, 2, 0, 0, 0, 0\n0, 0, 0, 0, 0, 0, 0, 0, 0, 0, 0, 0, 0, 0]"] ;
13 -> 15 ;
16 [label="x[6] <= 0.104\ngini = 0.872\nsamples = 2992\nvalue = [0, 0, 0, 0, 0, 18, 85, 366, 580, 571, 455, 247\n191, 123, 100, 63, 58, 41, 32, 26, 14, 6, 9, 2\n1, 1, 2, 1]"] ;
0 -> 16 [labeldistance=2.5, labelangle=-45, headlabel="False"] ;
17 [label="x[4] <= 0.328\ngini = 0.834\nsamples = 1150\nvalue = [0, 0, 0, 0, 0, 14, 73, 280, 294, 172, 104, 71\n47, 35, 27, 10, 8, 6, 3, 2, 2, 1, 1, 0, 0, 0\n0, 0]"] ;
16 -> 17 ;
18 [label="x[6] <= -0.324\ngini = 0.844\nsamples = 1030\nvalue = [0, 0, 0, 0, 0, 14, 68, 250, 236, 154, 97, 69\n47, 35, 27, 10, 8, 6, 3, 2, 2, 1, 1, 0, 0, 0\n0, 0]"] ;
17 -> 18 ;
19 [label="gini = 0.824\nsamples = 515\nvalue = [0, 0, 0, 0, 0, 10, 60, 148, 118, 64, 43, 25\n16, 12, 11, 3, 1, 2, 1, 0, 1, 0, 0, 0, 0, 0\n0, 0]"] ;
18 -> 19 ;
20 [label="gini = 0.852\nsamples = 515\nvalue = [0, 0, 0, 0, 0, 4, 8, 102, 118, 90, 54, 44, 31\n23, 16, 7, 7, 4, 2, 2, 1, 1, 1, 0, 0, 0, 0\n0]"] ;
18 -> 20 ;
21 [label="x[6] <= -0.455\ngini = 0.676\nsamples = 120\nvalue = [0, 0, 0, 0, 0, 0, 5, 30, 58, 18, 7, 2, 0, 0\n0, 0, 0, 0, 0, 0, 0, 0, 0, 0, 0, 0, 0, 0]"] ;
17 -> 21 ;
22 [label="gini = 0.375\nsamples = 4\nvalue = [0, 0, 0, 0, 0, 0, 0, 0, 0, 3, 1, 0, 0, 0\n0, 0, 0, 0, 0, 0, 0, 0, 0, 0, 0, 0, 0, 0]"] ;
21 -> 22 ;
23 [label="gini = 0.662\nsamples = 116\nvalue = [0, 0, 0, 0, 0, 0, 5, 30, 58, 15, 6, 2, 0, 0\n0, 0, 0, 0, 0, 0, 0, 0, 0, 0, 0, 0, 0, 0]"] ;
21 -> 23 ;
24 [label="x[6] <= 1.108\ngini = 0.869\nsamples = 1842\nvalue = [0, 0, 0, 0, 0, 4, 12, 86, 286, 399, 351, 176\n144, 88, 73, 53, 50, 35, 29, 24, 12, 5, 8, 2\n1, 1, 2, 1]"] ;
16 -> 24 ;
25 [label="x[4] <= 0.385\ngini = 0.853\nsamples = 1285\nvalue = [0, 0, 0, 0, 0, 4, 11, 80, 259, 307, 221, 100\n88, 60, 48, 25, 26, 20, 17, 9, 3, 2, 4, 0, 0\n1, 0, 0]"] ;
24 -> 25 ;
26 [label="gini = 0.9\nsamples = 516\nvalue = [0, 0, 0, 0, 0, 2, 3, 25, 65, 89, 69, 42, 57\n39, 34, 23, 22, 12, 16, 9, 2, 2, 4, 0, 0, 1\n0, 0]"] ;
25 -> 26 ;
27 [label="gini = 0.803\nsamples = 769\nvalue = [0, 0, 0, 0, 0, 2, 8, 55, 194, 218, 152, 58, 31\n21, 14, 2, 4, 8, 1, 0, 1, 0, 0, 0, 0, 0, 0\n0]"] ;
25 -> 27 ;
28 [label="x[4] <= 1.11\ngini = 0.876\nsamples = 557\nvalue = [0, 0, 0, 0, 0, 0, 1, 6, 27, 92, 130, 76, 56\n28, 25, 28, 24, 15, 12, 15, 9, 3, 4, 2, 1, 0\n2, 1]"] ;
24 -> 28 ;
29 [label="gini = 0.915\nsamples = 195\nvalue = [0, 0, 0, 0, 0, 0, 0, 3, 4, 28, 15, 19, 23\n12, 17, 20, 13, 10, 6, 10, 7, 2, 3, 1, 1, 0\n1, 0]"] ;
28 -> 29 ;
30 [label="gini = 0.826\nsamples = 362\nvalue = [0, 0, 0, 0, 0, 0, 1, 3, 23, 64, 115, 57, 33\n16, 8, 8, 11, 5, 6, 5, 2, 1, 1, 1, 0, 0, 1\n1]"] ;
28 -> 30 ;
}