digraph Tree {
node [shape=box, fontname="helvetica"] ;
edge [fontname="helvetica"] ;
0 [label="x[6] <= -0.854\ngini = 0.371\nsamples = 6497\nvalue = [4898, 1599]"] ;
1 [label="x[6] <= -1.084\ngini = 0.182\nsamples = 1404\nvalue = [142, 1262]"] ;
0 -> 1 [labeldistance=2.5, labelangle=45, headlabel="True"] ;
11 [label="x[9] <= -0.815\ngini = 0.091\nsamples = 1169\nvalue = [56, 1113]"] ;
1 -> 11 ;
13 [label="gini = 0.34\nsamples = 46\nvalue = [36, 10]"] ;
11 -> 13 ;
14 [label="x[7] <= -1.106\ngini = 0.035\nsamples = 1123\nvalue = [20, 1103]"] ;
11 -> 14 ;
35 [label="gini = 0.0\nsamples = 8\nvalue = [8, 0]"] ;
14 -> 35 ;
36 [label="gini = 0.021\nsamples = 1115\nvalue = [12, 1103]"] ;
14 -> 36 ;
12 [label="x[1] <= 0.093\ngini = 0.464\nsamples = 235\nvalue = [86, 149]"] ;
1 -> 12 ;
15 [label="x[4] <= -0.215\ngini = 0.386\nsamples = 92\nvalue = [68, 24]"] ;
12 -> 15 ;
19 [label="gini = 0.031\nsamples = 63\nvalue = [62, 1]"] ;
15 -> 19 ;
20 [label="gini = 0.328\nsamples = 29\nvalue = [6, 23]"] ;
15 -> 20 ;
16 [label="x[4] <= -0.315\ngini = 0.22\nsamples = 143\nvalue = [18, 125]"] ;
12 -> 16 ;
17 [label="gini = 0.0\nsamples = 15\nvalue = [15, 0]"] ;
16 -> 17 ;
18 [label="gini = 0.046\nsamples = 128\nvalue = [3, 125]"] ;
16 -> 18 ;
2 [label="x[9] <= -0.109\ngini = 0.124\nsamples = 5093\nvalue = [4756, 337]"] ;
0 -> 2 [labeldistance=2.5, labelangle=-45, headlabel="False"] ;
3 [label="x[1] <= 1.369\ngini = 0.031\nsamples = 3133\nvalue = [3084, 49]"] ;
2 -> 3 ;
23 [label="gini = 0.012\nsamples = 3050\nvalue = [3031, 19]"] ;
3 -> 23 ;
24 [label="x[7] <= 0.251\ngini = 0.462\nsamples = 83\nvalue = [53, 30]"] ;
3 -> 24 ;
37 [label="gini = 0.057\nsamples = 34\nvalue = [33, 1]"] ;
24 -> 37 ;
38 [label="gini = 0.483\nsamples = 49\nvalue = [20, 29]"] ;
24 -> 38 ;
4 [label="x[6] <= -0.411\ngini = 0.251\nsamples = 1960\nvalue = [1672, 288]"] ;
2 -> 4 ;
5 [label="x[10] <= -0.287\ngini = 0.5\nsamples = 312\nvalue = [159, 153]"] ;
4 -> 5 ;
7 [label="x[7] <= 0.358\ngini = 0.234\nsamples = 118\nvalue = [16, 102]"] ;
5 -> 7 ;
25 [label="gini = 0.219\nsamples = 16\nvalue = [14, 2]"] ;
7 -> 25 ;
26 [label="gini = 0.038\nsamples = 102\nvalue = [2, 100]"] ;
7 -> 26 ;
8 [label="x[4] <= -0.244\ngini = 0.388\nsamples = 194\nvalue = [143, 51]"] ;
5 -> 8 ;
9 [label="gini = 0.108\nsamples = 140\nvalue = [132, 8]"] ;
8 -> 9 ;
10 [label="gini = 0.324\nsamples = 54\nvalue = [11, 43]"] ;
8 -> 10 ;
6 [label="x[9] <= 3.251\ngini = 0.15\nsamples = 1648\nvalue = [1513, 135]"] ;
4 -> 6 ;
21 [label="x[11] <= -0.365\ngini = 0.136\nsamples = 1631\nvalue = [1511, 120]"] ;
6 -> 21 ;
27 [label="x[4] <= 0.384\ngini = 0.294\nsamples = 552\nvalue = [453, 99]"] ;
21 -> 27 ;
29 [label="gini = 0.028\nsamples = 422\nvalue = [416, 6]"] ;
27 -> 29 ;
30 [label="x[3] <= 0.369\ngini = 0.407\nsamples = 130\nvalue = [37, 93]"] ;
27 -> 30 ;
31 [label="x[6] <= 0.748\ngini = 0.267\nsamples = 107\nvalue = [17, 90]"] ;
30 -> 31 ;
33 [label="gini = 0.134\nsamples = 97\nvalue = [7, 90]"] ;
31 -> 33 ;
34 [label="gini = 0.0\nsamples = 10\nvalue = [10, 0]"] ;
31 -> 34 ;
32 [label="gini = 0.227\nsamples = 23\nvalue = [20, 3]"] ;
30 -> 32 ;
28 [label="gini = 0.038\nsamples = 1079\nvalue = [1058, 21]"] ;
21 -> 28 ;
22 [label="gini = 0.208\nsamples = 17\nvalue = [2, 15]"] ;
6 -> 22 ;
}